Layer weights:
-0.06720556318759918 -0.06957508623600006 0.07666373252868652 -0.06912478804588318 0.023792117834091187 0.15875735878944397 -0.06538905203342438 -0.27001315355300903 -0.2536586821079254 -0.00598415732383728 0.27373382449150085 0.09093469381332397 -0.13183072209358215 -0.1400892287492752 0.05964243412017822 -0.1906813085079193 -0.019024282693862915 -0.059836000204086304 0.11966058611869812 0.2787967622280121 -0.02949318289756775 0.20806416869163513 0.16923066973686218 -0.22473794221878052 -0.0711808055639267 0.18567007780075073 0.09881708025932312 -0.03480604290962219 0.2101859748363495 0.07479998469352722 -0.20103012025356293 -0.2768699526786804 -0.1122133731842041 0.0779528021812439 0.11976072192192078 -0.26476022601127625 0.044003039598464966 0.1715897023677826 -0.20241954922676086 -0.23164205253124237 0.1985931098461151 0.1598644256591797 0.22634294629096985 -0.1580822765827179 0.25918611884117126 -0.07867337763309479 0.23517653346061707 -0.13721561431884766 0.1359924077987671 0.03570353984832764 -0.22421376407146454 0.161685973405838 0.04904279112815857 0.20563355088233948 0.2677280008792877 0.206332266330719 -0.018627524375915527 -0.09568530321121216 -0.05409489572048187 0.19573503732681274 -0.11469817161560059 0.23064646124839783 0.13329815864562988 0.18246281147003174
0.18784545361995697 0.09711244702339172 0.03452044725418091 0.21645690500736237 -0.20826172828674316 -0.36495381593704224 -0.2377530038356781 0.03103366494178772 0.13250361382961273 -0.4168455898761749 0.15800897777080536 -0.09694606065750122 -0.019231745973229408 -0.19101515412330627 -0.08506844937801361 -0.1959068775177002 0.14796720445156097 0.0339767262339592 -0.12363937497138977 0.06800135225057602 0.10283345729112625 0.22584521770477295 0.1653890162706375 0.2124788612127304 0.1093430146574974 -0.1675276905298233 0.18831056356430054 -0.023449731990695 0.3148077726364136 -0.271010160446167 -0.32075244188308716 -0.19089774787425995 -0.1890692263841629 0.05216041952371597 -0.2697855830192566 0.2528277337551117 -0.2191360741853714 0.24760836362838745 -0.39413705468177795 0.08477702736854553 0.04898086190223694 -0.2800520360469818 -0.09200266748666763 -0.0719180479645729 0.08281160891056061 -0.16146625578403473 -0.22168253362178802 -0.05954224616289139 -0.3601207435131073 0.04056975618004799 -0.14705336093902588 0.05093638226389885 -0.245884969830513 -0.2665576934814453 -0.09003309160470963 0.06107863411307335 0.3933831453323364 -0.22750061750411987 -0.2456074059009552 0.09589048475027084 0.15210816264152527 -0.014768719673156738 0.33028414845466614 0.07020075619220734
-0.034348029643297195 0.015358537435531616 0.062006473541259766 0.00481549883261323 0.04697732254862785 0.16028843820095062 -0.08809202164411545 -0.001738905906677246 0.20411720871925354 0.12061069905757904 -0.18337206542491913 0.0374777615070343 -0.2936907708644867 -0.09897289425134659 -0.21076059341430664 -0.12050031125545502 0.2662145793437958 0.1573314070701599 -0.013154059648513794 0.00400302791967988 0.03448127955198288 0.09046459943056107 0.06012668460607529 -0.11713256686925888 -0.10946086794137955 0.11647210270166397 -0.26257869601249695 -0.1183115765452385 0.3271860182285309 0.1878870129585266 -0.15704652667045593 -0.08898996561765671 -0.009951651096343994 0.040838781744241714 -0.04225626587867737 -0.1437041163444519 -0.13354049623012543 0.13132750988006592 -0.3895817995071411 -0.23245027661323547 0.21209141612052917 -0.16451287269592285 0.14486074447631836 0.1833842396736145 -0.3768678903579712 -0.039087627083063126 -0.23026832938194275 -0.2879604399204254 0.057698048651218414 0.1830495446920395 -0.2454880177974701 -0.05308360978960991 -0.2325935810804367 -0.015582450665533543 0.27047598361968994 -0.27987992763519287 -0.17034083604812622 0.1308426558971405 -0.008966893889009953 0.11265596747398376 0.2006184458732605 -0.2802179157733917 0.2760615348815918 -0.23313181102275848
-0.09110087156295776 -0.25874003767967224 0.18386417627334595 0.6435448527336121 -0.10798092186450958 -0.2139587700366974 0.1791873276233673 0.10135003924369812 0.09970192611217499 -0.5072957277297974 -0.07571367174386978 0.1766742467880249 -0.23761609196662903 0.10958733409643173 -0.18813028931617737 -0.20171234011650085 0.1944350302219391 -0.3169357180595398 -0.2268046736717224 0.33600589632987976 0.2854975759983063 0.0894414484500885 -0.2459365427494049 0.007414889521896839 0.9925897717475891 0.030439918860793114 -0.004247814416885376 -0.15007051825523376 0.15726958215236664 0.15123438835144043 0.0931292325258255 -0.06018851324915886 0.21306449174880981 -0.017622878775000572 -0.15353010594844818 0.21872249245643616 0.6632326245307922 0.31951904296875 0.14955629408359528 -0.20963838696479797 0.24762627482414246 0.1955603063106537 -0.10915006697177887 -0.13023877143859863 -0.11451325565576553 -0.17935360968112946 -0.2699708938598633 0.15937988460063934 -0.01892032101750374 0.023364044725894928 -0.0954967737197876 0.09422975778579712 0.10528692603111267 0.23323844373226166 -0.11002842336893082 0.2535216808319092 0.12331408262252808 -0.03132843226194382 -0.15889021754264832 -0.2841067612171173 0.04432001709938049 -0.06147240102291107 0.4789973497390747 -0.13567432761192322
-0.16437393426895142 -0.1660849004983902 -0.027230501174926758 -0.8235580921173096 0.0967436283826828 -0.025869950652122498 0.0055622379295527935 0.03853091597557068 -0.11197427660226822 0.1733972430229187 0.21210472285747528 -0.2725956439971924 -0.13983866572380066 0.04418623447418213 0.03314213082194328 0.1534881591796875 0.16392682492733002 -0.11172281205654144 0.21581444144248962 -0.38723403215408325 -0.41327014565467834 0.13753370940685272 0.053271058946847916 -0.13062864542007446 0.042969271540641785 -0.26199206709861755 -0.1545092761516571 0.00832060445100069 -0.012946476228535175 0.016208231449127197 -0.2598430812358856 0.3586692810058594 -0.10324215888977051 -0.0766606479883194 0.15347498655319214 -0.06007876992225647 -0.3251338005065918 -0.09933645278215408 -0.13498996198177338 -0.022927433252334595 0.053067535161972046 0.21437481045722961 0.17443053424358368 -0.34586527943611145 0.13439607620239258 -0.026148494333028793 0.21959562599658966 -0.03973977640271187 0.0263217706233263 -0.2845975458621979 0.19047105312347412 -0.18280178308486938 -0.20024219155311584 -0.2748420834541321 -0.17694593966007233 0.0912427306175232 0.03150853142142296 -0.15111231803894043 -0.059468407183885574 0.02286282554268837 -0.1557542234659195 -0.04862792789936066 -0.36209946870803833 -0.3339424133300781
-0.251016765832901 0.026754528284072876 -0.2067010998725891 0.1366964876651764 -0.245747372508049 0.11711235344409943 -0.06401130557060242 -0.2503165602684021 0.017696557566523552 0.10915754735469818 -0.26060301065444946 -0.21709132194519043 -0.2276047319173813 -0.057359904050827026 0.03713265806436539 -0.09429900348186493 0.19151520729064941 -0.17772118747234344 -0.09150706231594086 0.22174158692359924 0.11135220527648926 -0.09242304414510727 0.15499041974544525 0.23793531954288483 0.3189331889152527 -0.16479432582855225 -0.03926153481006622 -0.03966459259390831 0.2875381410121918 -0.22817718982696533 0.1243109181523323 0.1198587641119957 -0.1239183247089386 0.10016094148159027 -0.1774796098470688 -0.010367482900619507 -0.08435472100973129 -0.07573658972978592 -0.1664467751979828 -0.1477852761745453 -0.047416433691978455 -0.21009013056755066 -0.23367013037204742 0.1252468079328537 -0.07708345353603363 0.16012300550937653 0.17305709421634674 0.012176630087196827 -0.18325340747833252 -0.19764909148216248 0.013221949338912964 0.009278426878154278 0.11078667640686035 -0.05693192034959793 0.11697163432836533 0.1461433619260788 -0.01969684287905693 0.04593588039278984 0.17142358422279358 0.10941442102193832 -0.2640738785266876 -0.2507827579975128 -0.21236349642276764 0.09725724905729294
-0.026361841708421707 -0.18071308732032776 0.16557565331459045 0.38217926025390625 0.15658226609230042 -0.3106782138347626 0.03971635922789574 0.014028459787368774 -0.06715364009141922 -0.1155991330742836 0.22784768044948578 -0.13238714635372162 0.213451087474823 -0.1334313154220581 0.08088457584381104 -0.00954526662826538 0.30308520793914795 0.1628604531288147 -0.14045731723308563 0.06387126445770264 0.022700702771544456 -0.28345727920532227 -0.19963376224040985 -0.0028411592356860638 0.10298469662666321 -0.01978343166410923 -0.10277271270751953 0.18330226838588715 -0.09733708947896957 -0.23731690645217896 0.12213118374347687 0.1294979304075241 -0.23212352395057678 -0.2226659506559372 -0.07935227453708649 0.05791229009628296 -0.20059309899806976 0.23881717026233673 -0.29520055651664734 -0.09170408546924591 -0.24751417338848114 0.08714953064918518 -0.17121994495391846 -0.0240947213023901 -0.004696554504334927 -0.19820283353328705 0.010160424746572971 0.08983618021011353 -0.3272828161716461 0.059981346130371094 -0.07820820808410645 -0.3746141195297241 0.004533708095550537 -0.17035290598869324 0.22511173784732819 0.11701135337352753 0.31680041551589966 -0.07107317447662354 -0.016206029802560806 0.032312631607055664 -0.026610136032104492 0.21158069372177124 -0.06274464726448059 -0.21430599689483643
0.05349284037947655 -0.15352189540863037 -0.19798807799816132 0.14856238663196564 -0.12800686061382294 -0.2915954887866974 -0.08798715472221375 0.10671931505203247 -0.28412702679634094 0.030985845252871513 0.1016823872923851 -0.2645486295223236 0.05619132146239281 -0.1185060441493988 0.14119966328144073 0.22295889258384705 0.14048263430595398 -0.038799948990345 -0.05205442011356354 -0.1866140514612198 -0.2117503434419632 0.14144267141819 0.1558505892753601 0.15619267523288727 0.10377410054206848 0.03890616074204445 -0.14374804496765137 -0.261686772108078 0.006014240439981222 -0.18698856234550476 0.08063621073961258 -0.09154600650072098 0.04638621211051941 0.08979899436235428 0.24455079436302185 -0.07581308484077454 0.16234371066093445 0.1185925230383873 -0.1658012419939041 -0.09861131012439728 0.1681673228740692 0.06989002227783203 0.21841704845428467 -0.048303037881851196 -0.08059152960777283 0.18013305962085724 -0.282342791557312 0.06959358602762222 -0.0410408079624176 -0.138590008020401 -0.2709374725818634 -0.05499238520860672 -0.02280154824256897 0.165226012468338 -0.020721780136227608 -0.036758728325366974 0.20036931335926056 -0.12182991951704025 0.11018583178520203 0.015286201611161232 -0.08561041951179504 -0.07192881405353546 0.20590879023075104 0.07454369217157364
0.02206999622285366 0.18969258666038513 0.024491935968399048 0.40910133719444275 0.09678717702627182 0.1577172726392746 -0.17923122644424438 -0.24280111491680145 -0.055704254657030106 -0.13433679938316345 -0.26505231857299805 -0.13550597429275513 0.019731536507606506 -0.17567546665668488 -0.1384204626083374 -0.23526936769485474 0.269026517868042 -0.2724582254886627 -0.016040503978729248 -0.17345498502254486 -0.06899991631507874 -0.004550686106085777 -0.30689674615859985 0.10129731148481369 -0.05929095298051834 -0.005940909963101149 -0.28086236119270325 -0.0302499420940876 -0.03230272978544235 -0.0727148950099945 -0.24909751117229462 -0.03558751195669174 0.0845712423324585 -0.010234411805868149 -0.09863759577274323 -0.2085355967283249 0.23406442999839783 0.16001451015472412 0.09003187716007233 -0.15320010483264923 -0.19630151987075806 -0.11089196801185608 -0.04702916368842125 0.03141150623559952 0.006141065154224634 -0.25408223271369934 -0.11520140618085861 -0.2601093053817749 -0.14032693207263947 -0.18871434032917023 0.11598393321037292 0.12593264877796173 -0.15444789826869965 0.2145802080631256 -0.08161628246307373 -0.12101595103740692 -0.060440950095653534 0.1430458426475525 -0.29762423038482666 -0.3107832372188568 -0.11959195137023926 -0.2385156750679016 0.2833428382873535 0.21156488358974457
-0.0036782086826860905 -0.1970386505126953 -0.14496101438999176 -0.5727470517158508 0.03548992797732353 -0.19650453329086304 0.09206824749708176 0.27184489369392395 -0.0972013846039772 0.07014785706996918 0.1010550782084465 -0.062284693121910095 -0.04128130525350571 -0.0009868259076029062 -0.19464978575706482 0.14690542221069336 0.10632328689098358 0.13815225660800934 -0.21925705671310425 -0.3404829800128937 -0.9198693633079529 -0.07111026346683502 -0.35793185234069824 0.018363479524850845 0.013679606840014458 -0.013414830900728703 -0.04787571728229523 -0.2668960988521576 0.11789188534021378 -0.1489812731742859 -0.14676888287067413 -0.050414230674505234 -0.10229484736919403 -0.3081585764884949 -0.05266854166984558 -0.1198958307504654 -0.10504910349845886 -0.25984498858451843 -0.048555001616477966 -0.22268585860729218 -0.23116634786128998 0.06982478499412537 -0.07039389759302139 -0.3882333040237427 -0.05718044191598892 0.15350690484046936 -0.2806852161884308 0.0514872670173645 -0.0783737376332283 -0.13017502427101135 0.0005243122577667236 0.11483006179332733 -0.21639077365398407 -0.1432287096977234 -0.011183153837919235 -0.21385543048381805 0.22347553074359894 -0.36891424655914307 0.19128404557704926 -0.21599791944026947 0.24830040335655212 -0.10338228940963745 0.11799855530261993 0.026532160118222237
Layer biases:
-0.059347379952669144 0.0 0.0 0.1564355194568634 -0.02940485253930092 -0.12321514636278152 -0.04366820305585861 0.0 -0.07708462327718735 -0.1394793540239334 -0.0512177050113678 0.0 -0.06848834455013275 -0.10400044918060303 -0.13908612728118896 0.0 0.038055259734392166 -0.07999499887228012 0.0 -0.03194815665483475 -0.0894196480512619 -0.03601641580462456 -0.07862043380737305 -0.005559428129345179 0.04959878325462341 -0.10586768388748169 0.0 -0.07541079074144363 0.04362242668867111 0.0 -0.06643272191286087 -0.013726672157645226 0.0 -0.1770358830690384 0.0 0.0 -0.046077173203229904 0.03789462521672249 -0.16375936567783356 0.0 0.0 0.0 -0.037147488445043564 -0.06962203979492188 -0.11306248605251312 -0.10339760780334473 -0.04404393956065178 -0.09449632465839386 -0.13693003356456757 -0.07694613933563232 0.0 -0.09483373910188675 0.0 -0.028287772089242935 0.025215741246938705 -0.11070972681045532 0.09283319115638733 -0.028036581352353096 -0.07767149060964584 -0.028968503698706627 0.0 0.0 0.053797200322151184 -0.04939189553260803

Layer weights:
0.10524803400039673 0.025227904319763184 0.030407369136810303 -0.2612040638923645 0.04284709692001343 -0.10584646463394165 0.002457502530887723 0.15109646320343018 0.23309266567230225 -0.1308763176202774 -0.19384896755218506 -0.025969481095671654 -0.23262035846710205 -0.14005953073501587 0.002271115779876709 0.16716766357421875 0.17705053091049194 -0.056064069271087646 -0.18409985303878784 -0.12861327826976776 -0.1998131275177002 0.1332361102104187 -0.11493653059005737 -0.016529858112335205 0.07128381729125977 0.12589848041534424 -0.0658828616142273 -0.27247172594070435 -0.20558810234069824 -0.019884884357452393 -0.10532182455062866 -0.017385780811309814
0.00950556993484497 0.19015812873840332 0.145685076713562 -0.10092169046401978 0.0755113959312439 0.019471585750579834 -0.04536116123199463 0.18616467714309692 0.02741539478302002 0.11862790584564209 -0.08259278535842896 -0.07333803176879883 0.09694749116897583 -0.20380592346191406 -0.11898231506347656 0.1924096941947937 -0.06506282091140747 0.2054920792579651 -0.17164796590805054 0.036530494689941406 0.026630818843841553 0.0393909215927124 0.09071123600006104 -0.12427324056625366 0.17980003356933594 -0.001257479190826416 0.006488144397735596 0.017087578773498535 -0.1650543212890625 -0.18198060989379883 0.005996227264404297 -0.23347121477127075
-0.22748231887817383 -0.14932960271835327 -0.1481233835220337 -0.24099516868591309 0.10860264301300049 -0.1900586485862732 0.08055448532104492 0.22498834133148193 -0.09618312120437622 0.06372910737991333 -0.09051132202148438 -0.14278972148895264 0.0655556321144104 -0.23068249225616455 -0.07151192426681519 -0.15613096952438354 -0.07606589794158936 0.18345963954925537 -0.12205767631530762 0.1172836422920227 -0.2418033480644226 -0.20345920324325562 0.2141437530517578 0.09608405828475952 -0.08706420660018921 0.19315248727798462 -0.23945176601409912 -0.21889662742614746 0.1461535096168518 -0.010358035564422607 -0.10835754871368408 -0.05664187669754028
0.018688498064875603 -0.08133876323699951 -0.14402419328689575 -0.16709311306476593 -0.06716641783714294 -0.2023431658744812 0.13277530670166016 -0.06022324785590172 -0.12156563997268677 -0.26681002974510193 -0.006729781627655029 0.13504967093467712 0.15942412614822388 -0.16587233543395996 -0.08812173455953598 0.05479147285223007 0.18423879146575928 0.44639965891838074 -0.05871784687042236 0.022379038855433464 -0.23502802848815918 0.28155985474586487 0.6788800954818726 0.11181038618087769 -0.12824410200119019 0.18420962989330292 0.8569902777671814 -0.22924202680587769 -0.11943657696247101 0.12748819589614868 0.21177524328231812 -0.03471618890762329
0.20392775535583496 -0.0565563440322876 0.09436523914337158 0.073398657143116 -0.1377290040254593 0.23726505041122437 0.12894608080387115 0.03030853159725666 0.00022989511489868164 -0.3118600845336914 -0.18673110008239746 -0.19339661300182343 -0.03830516338348389 0.03497189283370972 0.18969208002090454 0.19417256116867065 -0.12632417678833008 -0.07531653344631195 -6.372791540343314e-05 0.09489517658948898 0.07636463642120361 -0.21584127843379974 -0.040434643626213074 -0.22828245162963867 -0.032239675521850586 -0.190054252743721 0.03089159168303013 -0.40419989824295044 0.13533689081668854 -0.13622254133224487 0.15309567749500275 0.1422034502029419
0.04806278273463249 -0.2370433211326599 0.0749085545539856 0.10517676919698715 0.17014586925506592 0.1592004895210266 0.1165870875120163 -0.12233078479766846 0.041964948177337646 0.00030617593438364565 0.13290268182754517 0.07426802068948746 -0.019605040550231934 0.24322831630706787 -0.07104635238647461 0.009784400463104248 0.19608372449874878 0.05333683639764786 0.10327745229005814 0.04500209167599678 0.11704975366592407 -0.1522323340177536 -0.19249194860458374 0.24118131399154663 0.23948854207992554 -0.04978448152542114 -0.17342457175254822 -0.30798065662384033 -0.13397544622421265 -0.20661604404449463 0.16236288845539093 -0.07464039325714111
-0.24268794059753418 -0.1172899603843689 0.15471351146697998 0.16456562280654907 -0.21591955423355103 -0.04520130157470703 -0.06401324272155762 -0.12382346391677856 0.22214335203170776 -0.0036177635192871094 -0.06469672918319702 0.14203792810440063 0.0651816725730896 0.15353703498840332 -0.19296544790267944 -0.1768372654914856 0.20633751153945923 0.1075628474354744 0.07153499126434326 -0.014366988092660904 -0.014484405517578125 -0.13824164867401123 -0.08574783056974411 -0.10053461790084839 0.1684313416481018 0.033707380294799805 -0.08229543268680573 -0.17389506101608276 0.21677309274673462 0.2246239185333252 0.11576229333877563 -0.19768530130386353
-0.10756796598434448 0.14288467168807983 0.11327499151229858 0.11158961057662964 -0.12197864055633545 -0.20128506422042847 -0.028226375579833984 -0.20706570148468018 0.18917173147201538 -0.22874146699905396 0.0899621844291687 -0.20840543508529663 -0.08573150634765625 0.11119115352630615 -0.1759570837020874 -0.0787619948387146 -0.13294154405593872 0.028896629810333252 0.19630670547485352 -0.02358776330947876 0.03864973783493042 -0.07531017065048218 0.04624658823013306 0.18200021982192993 0.15061688423156738 -0.06319224834442139 0.08895677328109741 0.07118242979049683 0.08032763004302979 -0.03760796785354614 0.24381905794143677 0.19693076610565186
-0.06775345653295517 0.20689994096755981 -0.10918301343917847 -0.2613085210323334 -0.052891187369823456 0.16812551021575928 -0.20813262462615967 0.03854723647236824 -0.12456166744232178 -0.14719544351100922 0.03496366739273071 0.16350232064723969 -0.1502630114555359 -0.13710451126098633 -0.13161033391952515 0.052319884300231934 0.06213575601577759 0.25101885199546814 0.04922548681497574 -0.08462618291378021 0.16392695903778076 0.06039527431130409 -0.0826389417052269 0.006953179836273193 -0.12537842988967896 -0.14050960540771484 0.0963522344827652 -0.0984000638127327 -0.15745924413204193 -0.2400224208831787 0.1314331293106079 -0.18526041507720947
0.20754306018352509 0.10600864887237549 -0.2030981183052063 -0.21623851358890533 -0.15106961131095886 -0.17970585823059082 -0.265169620513916 0.047374267131090164 0.13226699829101562 -0.014178887009620667 0.01777064800262451 0.15772709250450134 -0.08885347843170166 0.17843174934387207 -0.1933656930923462 0.0750611424446106 0.052786827087402344 0.020334888249635696 0.17678630352020264 -0.10114312171936035 0.20180970430374146 -0.06558104604482651 -0.20101110637187958 -0.10279637575149536 -0.11953149735927582 -0.08839084953069687 0.005329879466444254 -0.2113761007785797 0.005387069657444954 -0.07187545299530029 -0.007810182403773069 0.15054529905319214
-0.05229063704609871 0.24702167510986328 -0.13015949726104736 0.006280726287513971 -0.25594714283943176 0.12631714344024658 -0.22381173074245453 -0.11380024999380112 -0.14043205976486206 0.07464588433504105 -0.12804996967315674 -0.1527373194694519 -0.15058201551437378 -0.14815109968185425 0.07386648654937744 -0.12494152784347534 -0.09310615062713623 0.003710083896294236 0.07285429537296295 0.2546461522579193 0.1724715232849121 -0.21904297173023224 -0.013619990088045597 0.11334717273712158 -0.04140975698828697 -0.09294115751981735 -0.03063114359974861 0.0627262070775032 0.13847649097442627 -0.21049600839614868 -0.2821652293205261 -0.19086062908172607
-0.022655010223388672 -0.16664427518844604 -0.08102017641067505 0.09750032424926758 0.105563223361969 0.06802022457122803 0.22827208042144775 0.23462045192718506 -0.14282739162445068 -0.026632070541381836 0.18078815937042236 0.2368057370185852 0.2356882095336914 -0.1975177526473999 0.2309008240699768 0.14062964916229248 0.2210668921470642 0.04359489679336548 -0.22420001029968262 0.09086573123931885 -0.19224339723587036 -0.16292870044708252 -0.19806474447250366 0.1042778491973877 -0.18126070499420166 -0.15970760583877563 -0.24712377786636353 0.06734257936477661 -0.043099939823150635 -0.056944847106933594 0.052824318408966064 -0.09007883071899414
-0.059188008308410645 0.04107481241226196 -0.044182777404785156 -0.21889252960681915 0.16424280405044556 -0.0019957423210144043 -0.005287105217576027 0.13258309662342072 0.10963958501815796 0.14392562210559845 -0.050568461418151855 0.14575989544391632 0.1258125901222229 0.18745148181915283 0.026863455772399902 -0.07289481163024902 0.2141750454902649 -0.10856328904628754 0.06444518268108368 -0.2674277424812317 0.18926018476486206 0.3313160836696625 0.08470046520233154 0.2321043610572815 -0.2348378300666809 -0.12604159116744995 -0.14046266674995422 -0.19888785481452942 0.16903668642044067 0.1983739733695984 -0.1627744436264038 0.13709181547164917
-0.13663169741630554 0.20247888565063477 0.15883487462997437 -0.08348309248685837 -0.04060428589582443 0.22823727130889893 0.08638792484998703 -0.19922828674316406 -0.00796210765838623 -0.025750532746315002 0.11349159479141235 0.016147105023264885 -0.2170252799987793 -0.11184334754943848 -0.1641649603843689 -0.12482571601867676 0.008451223373413086 0.27767130732536316 -0.24483048915863037 0.12749910354614258 -0.0244600772857666 -0.03658756986260414 -0.14050795137882233 0.17049211263656616 0.0389217734336853 -0.06934839487075806 -0.16206419467926025 -0.07049460709095001 -0.1371830254793167 -0.08992475271224976 0.1975863128900528 0.17832940816879272
-0.1700967401266098 0.10345113277435303 -0.034791529178619385 -0.08560764044523239 -0.11354479193687439 -0.16806155443191528 -0.12957163155078888 0.03896580636501312 -0.1260230541229248 -0.05169064179062843 -0.05973106622695923 0.09782073646783829 0.05367618799209595 0.01800680160522461 -0.10164523124694824 -0.004924178123474121 0.07441842555999756 -0.0695895403623581 -0.28996023535728455 -0.17919938266277313 0.22329586744308472 0.10267920792102814 0.07664090394973755 -0.19750410318374634 -0.11081737279891968 0.009938359260559082 -0.04421638324856758 -0.028408357873558998 -0.25795701146125793 -0.21629875898361206 -0.2601473927497864 0.20785605907440186
0.12655586004257202 0.19401830434799194 -0.11938208341598511 -0.1828622817993164 0.17279809713363647 0.1756833791732788 -0.042459189891815186 -0.0026343464851379395 0.08169549703598022 0.22128736972808838 0.19325363636016846 -0.22051018476486206 0.21756517887115479 -0.2488565444946289 -0.0023027658462524414 0.05634665489196777 -0.2250555157661438 0.12681293487548828 0.1846352219581604 0.1777014136314392 0.06643921136856079 -0.029192090034484863 0.23149597644805908 -0.19295060634613037 -0.23606598377227783 0.0886845588684082 -0.02868354320526123 -0.11668211221694946 -0.23742997646331787 -0.2154340147972107 -0.095797598361969 -0.038455069065093994
-0.1524265706539154 -0.17245233058929443 -0.20125436782836914 0.12138362228870392 -0.20690231025218964 -0.09784692525863647 0.06085905432701111 -0.10819217562675476 -0.19010251760482788 -0.0008859349763952196 -0.15690237283706665 -0.19716328382492065 -0.22501730918884277 -0.16906946897506714 -0.0637751892209053 -0.10880512744188309 -0.27801892161369324 -0.07876476645469666 0.10173245519399643 -0.0965442955493927 -0.1886540651321411 -0.21590101718902588 -0.29480108618736267 -0.15922880172729492 0.17997850477695465 -0.20976726710796356 0.14830978214740753 -0.14415109157562256 -0.09859000146389008 0.012075424194335938 -0.23764510452747345 -0.20972442626953125
0.10035117715597153 0.08137017488479614 0.19210892915725708 -0.007335488218814135 0.021111762151122093 -0.16917115449905396 0.04966520890593529 -0.21260495483875275 -0.14175105094909668 -0.27176332473754883 -0.12967675924301147 0.0004668744804803282 0.15079903602600098 -0.22812294960021973 0.015662729740142822 0.1274116039276123 0.005749523639678955 0.2804858386516571 0.13936211168766022 0.08908463269472122 -0.14173465967178345 -0.023247545585036278 0.036624036729335785 0.017137229442596436 -0.006030619144439697 0.004825472831726074 -0.1498059630393982 -0.04942522570490837 -0.0488932840526104 -0.1076650619506836 0.17269901931285858 0.103523850440979
0.041880786418914795 0.14361166954040527 -0.033479154109954834 0.19062620401382446 -0.17730063199996948 -0.015568315982818604 0.16025841236114502 0.24890440702438354 0.12649112939834595 0.03561288118362427 -0.1473892331123352 -0.0916825532913208 -0.05270183086395264 -0.24723470211029053 0.11532044410705566 0.23504364490509033 -0.2295973300933838 0.12340319156646729 -0.1256086826324463 -0.046530842781066895 0.13080072402954102 -0.24538332223892212 0.012456357479095459 -0.2457951307296753 0.20405256748199463 -0.15505599975585938 0.1861783266067505 -0.07836276292800903 -0.22343909740447998 0.046377718448638916 0.12207913398742676 -0.197104811668396
0.24159279465675354 0.10550779104232788 -0.22137576341629028 -0.40214836597442627 0.03851833567023277 0.23962312936782837 -0.005721385590732098 -0.04082692414522171 -0.2043476700782776 0.23299819231033325 -0.19707435369491577 -0.07011055946350098 -0.21319615840911865 0.12162065505981445 0.10555857419967651 0.19256240129470825 0.1399770975112915 0.02771160379052162 -0.11101251095533371 0.23791182041168213 -0.20841658115386963 0.2798892557621002 0.6976278424263 0.1745821237564087 -0.10103189945220947 -0.1336042732000351 0.28887495398521423 -0.23370695114135742 0.03479468822479248 0.24333065748214722 0.11397253721952438 -0.16929084062576294
-0.20697462558746338 -0.049315690994262695 0.08141863346099854 0.16530606150627136 -0.25915366411209106 0.02339249849319458 0.18701454997062683 -0.15085363388061523 0.06157642602920532 -0.2360810935497284 -0.13889634609222412 0.15120314061641693 0.0875093936920166 -0.05654042959213257 0.2452380657196045 -0.1281915307044983 -0.02066248655319214 -0.1406308263540268 -0.012042263522744179 -0.17841456830501556 0.12091445922851562 0.27425748109817505 0.3787621259689331 -0.07997357845306396 0.10749322175979614 -0.07593822479248047 0.24858902394771576 0.11498095840215683 0.021241819486021996 -0.19547247886657715 0.15076689422130585 -0.23602217435836792
0.09563393890857697 -0.14878487586975098 -0.038654208183288574 -0.0014289498794823885 -0.3738062083721161 0.1344127058982849 0.14410370588302612 -0.30620041489601135 0.02453303337097168 -0.21472801268100739 -0.04791128635406494 -0.22267699241638184 0.0077315568923950195 -0.15284132957458496 -0.2327086329460144 -0.11809450387954712 -0.2005711793899536 0.1204071193933487 -0.02151285856962204 0.026656273752450943 0.030957341194152832 -0.2610534131526947 0.09218902140855789 -0.1701352596282959 -0.1796322464942932 -0.14308112859725952 -0.03103928454220295 0.043290719389915466 0.1192266196012497 0.1904439926147461 -0.01814642734825611 0.12791228294372559
0.09890127182006836 -0.10529381036758423 0.08912283182144165 -0.055871471762657166 0.18744337558746338 0.1285240650177002 0.13355371356010437 0.1420852690935135 0.11477220058441162 -0.11332806199789047 0.17667251825332642 0.06107429042458534 0.040858447551727295 0.11510950326919556 0.04139488935470581 0.2197679877281189 0.1465855836868286 -0.16171492636203766 -0.16208848357200623 -0.12737499177455902 -0.21442759037017822 -0.06891543418169022 0.0185583233833313 0.15828567743301392 -0.06807488203048706 -0.009351193904876709 0.06696335971355438 0.14262515306472778 -0.24263131618499756 0.09187620878219604 -0.1001666784286499 0.17595350742340088
-0.05509784072637558 0.03566235303878784 -0.029918670654296875 -0.19028733670711517 -0.37964120507240295 -0.11493617296218872 -0.2599640190601349 0.011895297095179558 -0.24704569578170776 0.014880147762596607 0.19843590259552002 0.08706346154212952 -0.0873764157295227 0.2211044430732727 -0.23086293041706085 0.07767462730407715 -0.1753838062286377 -0.180345818400383 -0.20765435695648193 -0.15657450258731842 -0.21082299947738647 0.009087113663554192 -0.2143583446741104 0.16073644161224365 -0.15669584274291992 -0.2319708615541458 0.16210432350635529 0.03811665624380112 0.07748880237340927 0.06513416767120361 -0.18447111546993256 -0.17905479669570923
-0.20344685018062592 -0.09413284063339233 0.05475914478302002 -0.009204545989632607 -0.11935197561979294 -0.08999192714691162 0.04974634200334549 -0.011935013346374035 -0.1989079713821411 -0.08301166445016861 -0.0904577374458313 -0.16178636252880096 -0.16711241006851196 0.007982730865478516 0.2569052577018738 0.058736301958560944 0.13282175362110138 -0.3493576645851135 -0.05770076438784599 0.06908423453569412 -0.09971791505813599 -0.20006437599658966 -0.008753644302487373 -0.10919678211212158 0.024329014122486115 -0.06114763021469116 0.0969536229968071 -0.07244955748319626 0.1407344788312912 0.06133991479873657 -0.011576620861887932 -0.07423919439315796
0.025416888296604156 0.16690295934677124 -0.08253824710845947 0.02159164845943451 -0.12638407945632935 -0.07534605264663696 0.1379404217004776 0.028984621167182922 -0.06356984376907349 0.004856118932366371 -0.14272475242614746 0.1055665835738182 -0.07783377170562744 -0.1512376070022583 0.02521425485610962 0.002572953701019287 -0.12243640422821045 0.1101786270737648 -0.19092373549938202 -0.04228915274143219 0.24197834730148315 -0.044867560267448425 0.059586942195892334 0.0702284574508667 0.13299685716629028 -0.1071634292602539 -0.24170686304569244 -0.2590146064758301 0.19440694153308868 -0.15890884399414062 0.31804370880126953 0.10721564292907715
-0.23863500356674194 0.22650182247161865 -0.19806146621704102 0.1944085955619812 -0.11273962259292603 -0.22731900215148926 0.10026919841766357 0.0642886757850647 0.057520270347595215 -0.23017704486846924 0.17342638969421387 0.04328733682632446 0.21851831674575806 -0.10467535257339478 -0.031855106353759766 -0.03992432355880737 0.059476256370544434 -0.039165377616882324 -0.1433635950088501 0.09547418355941772 0.1195976734161377 -0.15604561567306519 0.050318241119384766 -0.053578078746795654 -0.09418231248855591 0.11214113235473633 0.11909788846969604 -0.11140310764312744 0.05848133563995361 0.005392253398895264 -0.012187838554382324 -0.09924185276031494
-0.04023689776659012 0.12253856658935547 -0.21224451065063477 0.17628757655620575 0.18735134601593018 0.09243470430374146 -0.2529405951499939 -0.1121981292963028 0.028143227100372314 0.11863546073436737 0.19873172044754028 0.06810284405946732 -0.017711222171783447 -0.022169888019561768 0.2431146502494812 0.11087608337402344 -0.23558980226516724 0.19816607236862183 -0.27125033736228943 0.14118532836437225 -0.10860824584960938 0.1761542558670044 -0.1768341064453125 -0.035511910915374756 -0.12072014808654785 -0.22486191987991333 -0.15737466514110565 -0.10443078726530075 0.027832938358187675 0.06272810697555542 -0.09243830293416977 0.17640280723571777
-0.09072934091091156 -0.15241527557373047 -0.05088382959365845 -0.2684977948665619 0.07696428894996643 -0.08769881725311279 0.029322847723960876 -0.22768275439739227 -0.19652801752090454 -0.2938263416290283 -0.22792655229568481 -0.09645530581474304 -0.16462641954421997 -0.06827753782272339 -0.0438045933842659 -0.15228678286075592 -0.231490820646286 0.03905760124325752 -0.07149127870798111 0.033317819237709045 0.03994143009185791 -0.12065878510475159 -0.2888720631599426 0.04169261455535889 -0.13401725888252258 -0.20870429277420044 0.139309823513031 -0.18711185455322266 -0.2245914787054062 -0.223269522190094 -0.27023670077323914 0.23150837421417236
0.1981348991394043 0.06928181648254395 -0.1417001485824585 -0.1341293454170227 0.06554853916168213 0.07432448863983154 -0.1564342975616455 0.17958176136016846 0.06263655424118042 0.2174001932144165 0.18462097644805908 0.10258376598358154 -0.008678913116455078 -0.14039313793182373 0.14342916011810303 0.127940833568573 0.2176920771598816 -0.1265379786491394 -0.21495193243026733 0.22338509559631348 -0.06071794033050537 0.10685092210769653 0.10790401697158813 0.1228938102722168 0.13959473371505737 0.23119211196899414 -0.09225320816040039 0.18559157848358154 0.18032771348953247 0.19001919031143188 0.20913487672805786 -0.11594927310943604
-0.014347895979881287 -0.029013872146606445 0.020984530448913574 -0.09238073974847794 -0.028236892074346542 -0.13345682621002197 0.04154229164123535 0.10879049450159073 -0.009191751480102539 -0.14741243422031403 -0.1712368130683899 0.052750490605831146 -0.06503325700759888 -0.0010573267936706543 -0.2394406795501709 -0.02921593189239502 0.021506071090698242 0.038396984338760376 0.1204022765159607 0.012426203116774559 0.22969555854797363 0.2167026698589325 0.0996018648147583 0.020732641220092773 0.1857738494873047 0.1276201605796814 0.2426755577325821 0.052979469299316406 0.07042157649993896 -0.18826788663864136 0.04233398661017418 -0.21119433641433716
0.0814642608165741 -0.05095553398132324 -0.05464828014373779 -0.025511717423796654 -0.2214478850364685 0.06076294183731079 -0.18991458415985107 0.15050870180130005 -0.03238481283187866 0.11715466529130936 -0.047928810119628906 -0.29340314865112305 0.12039202451705933 -0.1793285608291626 0.1151263639330864 0.20032644271850586 0.018028173595666885 -0.33568257093429565 -0.2850576341152191 0.1520870178937912 0.09273636341094971 0.059481892734766006 -0.47384318709373474 0.12485110759735107 0.07110755145549774 -0.18047794699668884 -0.11526761204004288 0.07448335736989975 -0.2598874568939209 -0.16076934337615967 -0.030372729524970055 -0.18330568075180054
0.0891035795211792 0.2441091537475586 0.196061909198761 0.12229758501052856 0.034940123558044434 -0.17318129539489746 0.06424850225448608 -0.08560395240783691 -0.06750726699829102 -0.07700306177139282 -0.015573084354400635 -0.20413506031036377 -0.16449666023254395 0.13797879219055176 -0.13459086418151855 -0.12380427122116089 -0.13399463891983032 -0.19792979955673218 -0.037868618965148926 0.013028442859649658 0.09994256496429443 0.04304242134094238 0.16261142492294312 0.21359890699386597 0.16885089874267578 0.12162125110626221 0.15072083473205566 -0.0860069990158081 -0.05756080150604248 -0.009138643741607666 -0.02639561891555786 0.1509714126586914
-0.1152743250131607 -0.13681000471115112 0.05936932563781738 0.030395613983273506 -0.15528130531311035 -0.19568365812301636 -0.16394512355327606 0.16452442109584808 0.1680370569229126 0.056394826620817184 -0.010011553764343262 0.10382020473480225 0.21386349201202393 -0.2257373332977295 -0.06584835052490234 0.12145406007766724 -0.07631993293762207 -0.0768817886710167 -0.10384906083345413 -0.030760830268263817 -0.22697269916534424 0.19416894018650055 -0.19069752097129822 0.07725363969802856 -0.11103439331054688 -0.11876249313354492 -0.1661035716533661 -0.1189543828368187 -0.20462480187416077 -0.12284457683563232 -0.2491903156042099 0.00013256072998046875
0.03247123956680298 -0.2068547010421753 0.22580450773239136 -0.002310454845428467 -0.0587993860244751 0.10262012481689453 -0.20430713891983032 0.004519820213317871 -0.05460357666015625 -0.23862046003341675 -0.11874258518218994 0.12200480699539185 0.02224212884902954 -0.039171695709228516 0.09252399206161499 0.19955700635910034 0.043657779693603516 -0.03472107648849487 -0.12890326976776123 0.12531661987304688 -0.20113205909729004 -0.026638448238372803 0.09359240531921387 0.168310284614563 -0.16825228929519653 -0.022348523139953613 -0.04765796661376953 -0.04856973886489868 0.18776947259902954 -0.09826862812042236 0.1729893684387207 0.08255767822265625
0.204004168510437 -0.11069577932357788 -0.09738141298294067 -0.16994541883468628 -0.08397775888442993 -0.13872534036636353 0.052083730697631836 -0.08271700143814087 0.12690579891204834 -0.21060097217559814 -0.21414023637771606 0.12786680459976196 0.24288654327392578 0.06971049308776855 -0.1672552227973938 0.11572164297103882 -0.17193132638931274 -0.11076176166534424 -0.09569787979125977 0.23787152767181396 -0.15709078311920166 0.2384386658668518 -0.08248007297515869 0.24035346508026123 -0.03016728162765503 -0.24759286642074585 0.049394845962524414 0.2005906105041504 -0.10914623737335205 0.04467129707336426 -0.1272670030593872 0.13865602016448975
0.12851323187351227 0.16979873180389404 0.17130839824676514 -0.035186830908060074 -0.020283209159970284 -0.21256250143051147 -0.2454083263874054 0.026066182181239128 0.046537935733795166 -0.0014460720121860504 -0.11777263879776001 0.13539011776447296 0.027576446533203125 -0.23615425825119019 -0.11058354377746582 0.08967621624469757 0.03199112415313721 0.11305210739374161 0.12535294890403748 -0.24925296008586884 -0.20594143867492676 -0.023920826613903046 0.5378281474113464 0.2456732988357544 0.03880060464143753 0.2633466422557831 0.22397911548614502 0.08182001113891602 -0.027710139751434326 -0.1622125506401062 0.11665190756320953 0.003986775875091553
0.043797723948955536 -0.03887206315994263 -0.11275410652160645 -0.038935013115406036 -0.21480205655097961 0.054254114627838135 -0.19458714127540588 0.17327159643173218 -0.21439361572265625 -0.29955482482910156 -0.09058451652526855 -0.05718470364809036 0.21462535858154297 -0.20181262493133545 -0.024131063371896744 -0.28544852137565613 -0.22700873017311096 -0.20914706587791443 0.07187505811452866 0.0915486142039299 0.0797761082649231 0.07700512558221817 -0.13644114136695862 -0.2299652099609375 -0.12637946009635925 -0.015359566546976566 0.2277822345495224 -0.2705027163028717 0.06118757650256157 -0.07874077558517456 0.04030692204833031 -0.002888500690460205
0.06823813915252686 -0.17670577764511108 0.18680191040039062 0.06817090511322021 -0.23396944999694824 0.013885259628295898 -0.1506776213645935 -0.053408801555633545 -0.19167953729629517 0.16603076457977295 -0.08558428287506104 -0.15882021188735962 0.17654502391815186 0.020597636699676514 -0.1040579080581665 -0.150862455368042 -0.2042216658592224 -0.14578160643577576 0.12203282117843628 0.13411569595336914 0.05208832025527954 -0.11653327941894531 0.06251662969589233 0.16984045505523682 -0.19044595956802368 -0.2241629958152771 -0.12655305862426758 -0.060787856578826904 -0.231747567653656 0.19149470329284668 0.10916703939437866 0.03551536798477173
0.10937660932540894 -0.23273372650146484 0.08197939395904541 -0.24944090843200684 -0.03488278388977051 0.11860495805740356 0.23218798637390137 0.1471056342124939 0.22045868635177612 0.16607171297073364 -0.24397438764572144 -0.21933859586715698 0.09020936489105225 0.10194772481918335 0.18525105714797974 0.17033040523529053 0.06558501720428467 0.24074167013168335 -0.07469969987869263 -0.06326758861541748 -0.012328684329986572 0.14314258098602295 0.06185710430145264 0.05710196495056152 0.22440767288208008 -0.04244881868362427 0.1921793818473816 0.013918519020080566 0.1680583357810974 0.22556638717651367 -0.04040342569351196 -0.01218259334564209
0.008675873279571533 -0.015702903270721436 0.03938627243041992 -0.2193373441696167 -0.17095959186553955 -0.1709159016609192 0.042627573013305664 -0.18045127391815186 -0.036960721015930176 -0.06466346979141235 0.14787912368774414 -0.24717998504638672 -0.21445101499557495 0.13477319478988647 0.14986467361450195 0.009694933891296387 -0.2236139178276062 0.14811724424362183 0.07750171422958374 -0.01933521032333374 0.1303495168685913 -0.007108032703399658 0.0664135217666626 -0.18665087223052979 -0.009068667888641357 -0.0577092170715332 0.14223867654800415 0.04124337434768677 -0.21177732944488525 0.036950886249542236 0.12998032569885254 -0.20848697423934937
-0.14393067359924316 -0.2390877604484558 -0.1841259002685547 -0.036913394927978516 -0.2261105179786682 -0.23123323917388916 0.21691197156906128 -0.00210493803024292 0.14310002326965332 0.11063528060913086 0.14881056547164917 0.10287022590637207 0.21867316961288452 -0.12462913990020752 0.07010215520858765 -0.10973507165908813 -0.009942770004272461 0.18077027797698975 0.18346726894378662 0.13327032327651978 0.14534646272659302 -0.057768821716308594 -0.22366154193878174 0.15132182836532593 0.19849389791488647 -0.20256435871124268 0.13645845651626587 0.021966993808746338 0.059257566928863525 0.22468340396881104 -0.1325283646583557 -0.2274802327156067
-0.07398252934217453 0.05172973871231079 0.08679115772247314 0.08825711160898209 0.08631712198257446 0.08103245496749878 -0.2759009599685669 -0.1749698519706726 -0.144037127494812 -0.004879175219684839 -0.05090177059173584 0.12101604789495468 0.12887495756149292 -0.11508667469024658 -0.19011932611465454 -0.049225568771362305 0.09164512157440186 -0.02088191919028759 0.1551627665758133 -0.024741755798459053 -0.16974914073944092 0.03599095344543457 0.15918821096420288 -0.22219449281692505 -0.03891986608505249 -0.1666504144668579 0.20221802592277527 0.06388047337532043 0.07109913975000381 0.20457351207733154 0.12165152281522751 0.1582159399986267
0.12390981614589691 -0.15713715553283691 0.15649545192718506 -0.24012038111686707 -0.05345114693045616 0.20057672262191772 0.12913846969604492 -0.15860439836978912 -0.05689030885696411 0.11972754448652267 -0.1795092225074768 -0.25062552094459534 -0.0007790327072143555 -0.10203176736831665 -0.03865844011306763 -0.21173787117004395 0.015293598175048828 -0.12815366685390472 0.17010483145713806 0.0904209241271019 0.21577966213226318 -0.07863698899745941 0.3717479705810547 0.021672189235687256 0.16131967306137085 0.21528953313827515 -0.07964896410703659 -0.003597925417125225 -0.06412647664546967 0.09676104784011841 -0.20926588773727417 -0.15946972370147705
0.16532863676548004 -0.19667154550552368 0.02336972951889038 0.16607074439525604 -0.23108500242233276 -0.04367375373840332 0.08187573403120041 -0.2684302031993866 -0.14580202102661133 -0.064295195043087 -0.06187176704406738 -0.27481716871261597 0.04471004009246826 -0.1110275387763977 0.0316348671913147 0.048306167125701904 -0.005276322364807129 0.1308584213256836 -0.26746925711631775 0.1484750211238861 -0.16404211521148682 0.1225857213139534 -0.026869777590036392 -0.08424800634384155 0.11490499973297119 -0.22742342948913574 -0.08160986006259918 0.05060739442706108 -0.08206740021705627 0.24656689167022705 -0.3137645423412323 -0.14776510000228882
0.1490691900253296 -0.16295534372329712 0.14131766557693481 0.009244007989764214 0.02280447818338871 -0.16891908645629883 0.14586736261844635 -0.12138775736093521 0.17926985025405884 -0.31878358125686646 -0.06082206964492798 -0.1890067458152771 -0.02386617660522461 -0.13618117570877075 -0.061616599559783936 -0.08565515279769897 -0.13456851243972778 0.1509566754102707 0.15517613291740417 -0.16618305444717407 -0.12552762031555176 0.007931509986519814 -0.05562285706400871 0.03843331336975098 -0.21670746803283691 -0.07531756162643433 -0.1360568106174469 0.07194586843252182 0.1717378944158554 0.06457847356796265 0.02124740742146969 0.03615027666091919
-0.23853200674057007 0.19211649894714355 0.11206638813018799 -0.17576490342617035 -0.07300060987472534 0.12685555219650269 0.17933745682239532 -0.04663845896720886 0.10362309217453003 -0.09590558707714081 0.1396847367286682 0.04231854900717735 0.11775469779968262 -0.15059202909469604 0.24098265171051025 0.23878133296966553 -0.22436070442199707 -0.08146938681602478 -0.0836331695318222 0.16661874949932098 -0.19687241315841675 0.26372769474983215 -0.21229147911071777 0.10550796985626221 -0.016722023487091064 0.14490097761154175 0.17610009014606476 -0.130331888794899 -0.16914069652557373 -0.1338215470314026 0.17768490314483643 0.14959561824798584
-0.12369444221258163 0.05145794153213501 0.15867012739181519 -0.19810061156749725 -0.2270757257938385 -0.026182472705841064 -0.055123280733823776 0.17992724478244781 -0.1743590235710144 0.05594340339303017 -0.14428269863128662 0.1047917827963829 -0.1970522403717041 0.11739009618759155 -4.9054622650146484e-05 0.054717838764190674 -0.07749849557876587 0.03731127828359604 -0.17587439715862274 0.09141896665096283 0.07600116729736328 -0.10043277591466904 0.19538003206253052 -0.13072943687438965 -0.24385446310043335 0.038070499897003174 0.09666497260332108 -0.06480202823877335 -0.02973642759025097 -0.06350940465927124 0.14271757006645203 -0.000939786434173584
0.09969411045312881 0.10277324914932251 -0.0636475682258606 0.1689617782831192 -0.03240062668919563 -0.06618577241897583 -0.06112461909651756 -0.1831519603729248 -0.22761964797973633 -0.1172359436750412 -0.11683082580566406 0.035545241087675095 -0.06114661693572998 -0.09725505113601685 0.22465133666992188 0.23700237274169922 -0.21751505136489868 -0.16898617148399353 -0.2205979824066162 0.15826988220214844 -0.23445254564285278 -0.20916283130645752 0.24660617113113403 0.1785183548927307 -0.08969563245773315 -0.017268598079681396 0.3293740749359131 -0.24442793428897858 0.19938857853412628 0.19702380895614624 -0.10042615234851837 -0.21308249235153198
-0.21731173992156982 0.2188820242881775 0.1070895791053772 0.06945664435625076 -0.07305997610092163 -0.06811243295669556 -0.05094652622938156 -0.20565196871757507 -0.08072096109390259 -0.18015433847904205 -0.03418630361557007 0.12650758028030396 0.20416104793548584 -0.12790358066558838 0.14392602443695068 0.016219019889831543 -0.001580357551574707 -0.025378042832016945 -0.08207067102193832 -0.060107871890068054 -0.011760294437408447 -0.006376334466040134 0.21860867738723755 0.062329232692718506 0.05859720706939697 0.19585448503494263 -0.034137383103370667 -0.21433699131011963 -0.09275037050247192 -0.20052343606948853 0.19627957046031952 -0.012314260005950928
0.08807438611984253 0.17988735437393188 0.09758049249649048 0.12048840522766113 -0.19128870964050293 0.03829461336135864 -0.0865471363067627 0.1747226119041443 0.027319729328155518 0.07729405164718628 -0.09984362125396729 -0.008107662200927734 -0.21184468269348145 0.15701043605804443 -0.01059269905090332 0.013199269771575928 -0.18208134174346924 -0.02825462818145752 -0.060032010078430176 0.1992567777633667 -0.08033895492553711 -0.031032681465148926 -0.05302894115447998 -0.01075822114944458 -0.20181530714035034 -0.2222895622253418 0.1558571457862854 0.19784694910049438 0.05865758657455444 -0.07521271705627441 -0.21624630689620972 -0.15492671728134155
0.33295097947120667 0.21222823858261108 0.07775622606277466 0.2000310719013214 -0.23121774196624756 0.12326401472091675 0.13971169292926788 -0.1389526128768921 0.24519139528274536 0.10182312875986099 -0.09988272190093994 0.16855065524578094 -0.07220768928527832 0.18701457977294922 -0.08014452457427979 -0.04500925540924072 -0.13162004947662354 -0.008994383737444878 -0.12269091606140137 0.2188510149717331 0.0016587376594543457 -0.0758621022105217 -0.04952961206436157 -0.1647544503211975 -0.24127215147018433 -0.18628031015396118 0.18487878143787384 0.002857981715351343 0.19811227917671204 -0.17733389139175415 0.32865414023399353 0.10385435819625854
0.0017101168632507324 -0.035766661167144775 0.10786348581314087 -0.13027644157409668 0.11296415328979492 -0.08976083993911743 0.06092274188995361 0.07998412847518921 0.178597092628479 0.10962826013565063 0.15152764320373535 0.02896803617477417 -0.05146491527557373 -0.020002305507659912 -0.14840662479400635 -0.05138915777206421 -0.13509881496429443 0.21308982372283936 0.16120946407318115 -0.01804673671722412 0.12790989875793457 0.13711529970169067 0.14571619033813477 0.04247260093688965 0.15914183855056763 -0.02902543544769287 -0.12352734804153442 -0.018145382404327393 0.129727303981781 -0.09193688631057739 -0.14741063117980957 0.2298433780670166
0.01817762851715088 0.0475497841835022 -0.007741570472717285 0.08642339706420898 -0.07348406314849854 -0.09683626890182495 -0.05857129767537117 0.04182134568691254 -0.1865960955619812 -0.22610604763031006 0.11063838005065918 -0.032773151993751526 0.06377142667770386 0.1212572455406189 -0.227469801902771 0.0793035626411438 -0.04317915439605713 -0.1947898268699646 0.19140811264514923 0.06090044975280762 -0.10131138563156128 0.20274856686592102 0.09189027547836304 -0.1527160406112671 0.11330413818359375 -0.04482722282409668 0.07990974187850952 -0.16219884157180786 -0.18362092971801758 -0.11126202344894409 0.2376539707183838 -0.2033708095550537
-0.14940690994262695 0.13925129175186157 -0.23867195844650269 -0.30308136343955994 -0.11537417024374008 -0.07719480991363525 -0.21860136091709137 0.13403403759002686 0.08915263414382935 0.031371671706438065 -0.08356338739395142 0.05955996736884117 -0.08049869537353516 0.23082172870635986 -0.2171550989151001 -0.19628486037254333 -0.0900358110666275 -0.25337353348731995 -0.22324497997760773 -0.19986070692539215 0.10724639892578125 -0.11307717114686966 -0.18790824711322784 0.06255567073822021 -0.14679010212421417 0.14870382845401764 0.10486789047718048 -0.347818523645401 -0.1564955860376358 0.16660857200622559 -0.09748756885528564 0.19442719221115112
-0.016753943637013435 -0.12289094924926758 -0.11668086051940918 0.011271210387349129 -0.09018155187368393 -0.20660054683685303 -0.2618351876735687 -0.2828212380409241 0.008126139640808105 0.14014889299869537 -0.08175700902938843 0.039980191737413406 0.1085919737815857 0.0801355242729187 -0.20440828800201416 -0.1806585043668747 0.14474022388458252 0.0639258623123169 0.06353237479925156 -0.12210405617952347 -0.1412818431854248 0.1500912755727768 -0.003508494235575199 -0.04053014516830444 -0.14603585004806519 0.1140463799238205 0.07881569117307663 -0.3562624752521515 -0.19465066492557526 -0.13637566566467285 0.0008578573470003903 -0.061500370502471924
-0.14319412410259247 -0.22631901502609253 -0.19476771354675293 -0.1302669793367386 -0.2722007632255554 -0.22950321435928345 -0.20577143132686615 -0.275887668132782 0.22988635301589966 0.051199283450841904 -0.09681093692779541 -0.21188019216060638 0.03891599178314209 -0.05731731653213501 0.22641146183013916 -0.06695408374071121 0.16272945702075958 -0.1868598908185959 -0.2464427798986435 -0.08064160495996475 0.005376994609832764 -0.07273548096418381 -0.287936270236969 0.09944760799407959 -0.2699400782585144 0.03806318715214729 0.12358411401510239 -0.03422126919031143 0.1844007521867752 -0.12509101629257202 -0.1844576746225357 -0.24283874034881592
-0.15719109773635864 0.000577092170715332 0.1904650330543518 -0.27847790718078613 0.05723533779382706 0.03483271598815918 -0.3013058602809906 0.05429711565375328 -0.13656753301620483 -0.06195290759205818 -0.11051750183105469 -0.06764641404151917 0.01990431547164917 -0.008404254913330078 0.02677762508392334 0.23838108777999878 0.1427232027053833 -0.12058217078447342 -0.08005653321743011 0.13845793902873993 -0.08985674381256104 0.0809861570596695 0.32957765460014343 0.16801148653030396 0.020396113395690918 -0.23501569032669067 0.1529942750930786 -0.0724370926618576 -0.06531722098588943 0.12630027532577515 -0.28941279649734497 -0.08984094858169556
0.11027874052524567 0.23508399724960327 -0.1727733612060547 -0.06913628429174423 -0.066364586353302 -0.18183386325836182 0.08024108409881592 0.010658317245543003 0.07654279470443726 -0.2863345742225647 0.22731810808181763 -0.15356920659542084 -0.21320325136184692 0.1786225438117981 -0.13232421875 -0.18720412254333496 0.20019185543060303 0.3050537407398224 -0.2231173813343048 0.22003312408924103 -0.1580527424812317 0.032950855791568756 0.00219551520422101 -0.11893713474273682 -0.21860253810882568 -0.2219599485397339 -0.21360284090042114 -0.27645909786224365 0.0900581106543541 -0.22881382703781128 0.11963856965303421 -0.007701754570007324
-0.18358422815799713 0.011824369430541992 0.12509876489639282 -0.07336712628602982 -0.008925437927246094 0.08043193817138672 -0.04998224973678589 -0.11943930387496948 0.17729902267456055 0.14296340942382812 0.23356002569198608 -0.19313305616378784 -0.05713373422622681 -0.02029949426651001 0.05670750141143799 0.017390429973602295 0.0032590627670288086 0.17397545278072357 0.018855392932891846 -0.01694704405963421 -0.07455909252166748 -0.10188142210245132 -0.07002544403076172 0.0975726842880249 0.206101655960083 -0.003664255142211914 -0.17339468002319336 -0.1418675184249878 0.16104620695114136 -0.17510348558425903 -0.2401828169822693 0.1447177529335022
0.11295580863952637 -0.13108491897583008 -0.15064650774002075 0.06012439727783203 0.14801114797592163 0.16065526008605957 0.028866589069366455 0.20853275060653687 -0.14651179313659668 0.024382412433624268 -0.11059826612472534 -0.16348105669021606 -0.1428733468055725 -0.2168104648590088 0.19836795330047607 -0.2171165943145752 -0.09921771287918091 -0.00462031364440918 0.16812235116958618 0.14688968658447266 0.07548415660858154 -0.13107752799987793 0.004342913627624512 0.2049785852432251 0.11126875877380371 -0.05349111557006836 -0.19935238361358643 -0.051331162452697754 -0.0560646653175354 0.16109704971313477 0.09159350395202637 -0.1824500560760498
0.19964128732681274 0.23818808794021606 -0.01654958724975586 0.18535256385803223 -0.21522825956344604 0.09165257215499878 -0.09809333086013794 -0.016406476497650146 -0.149905264377594 0.2060335874557495 -0.21804732084274292 -0.0037282705307006836 0.1711074709892273 0.17371588945388794 -0.23932385444641113 -0.040185749530792236 0.10566771030426025 0.16535091400146484 -0.03499305248260498 -0.19933068752288818 0.001062929630279541 -0.017176926136016846 -0.22082066535949707 -0.14511078596115112 -0.21078169345855713 -0.16856324672698975 0.18041539192199707 -0.24093127250671387 0.04882556200027466 -0.12989825010299683 -0.2280360460281372 -0.18532782793045044
-0.09257330000400543 0.12392258644104004 -0.03509730100631714 -0.2319735735654831 -0.1435839682817459 0.05288350582122803 -0.3026672899723053 -0.08378075063228607 0.03231090307235718 0.010732918977737427 -0.1430748701095581 -0.30217671394348145 -0.15562289953231812 0.20743697881698608 0.01923227310180664 -0.07448326051235199 0.04545783996582031 -0.1756720244884491 -0.03474220633506775 -0.010495059192180634 -0.0760490894317627 -0.20761914551258087 -0.07460689544677734 -0.16843390464782715 0.03374870866537094 0.19957703351974487 0.21673429012298584 0.02384890243411064 -0.19574618339538574 -0.24090784788131714 0.16445539891719818 0.016229212284088135
0.159371018409729 0.015839576721191406 -0.061582326889038086 -0.016355665400624275 -0.03229793161153793 -0.2346341609954834 0.03599392995238304 -0.0018984649796038866 0.2435305118560791 -0.09588763862848282 -0.0427781343460083 -0.20358048379421234 -0.2146514654159546 0.22307491302490234 0.05027645826339722 -0.16658014059066772 0.08191591501235962 0.06047110632061958 0.09560469537973404 -0.020876936614513397 -0.184517502784729 0.050476688891649246 0.3716580271720886 0.19858068227767944 -0.04028975963592529 -0.16737037897109985 0.025303566828370094 -0.09543786942958832 -0.22405435144901276 -0.18694812059402466 0.05010129511356354 -0.10629993677139282
Layer biases:
-0.0023846307303756475 0.0 0.0 -0.07593979686498642 -0.162202849984169 0.0 -0.06001478061079979 -0.06001337617635727 0.0 -0.06844343990087509 0.0 -0.04234891012310982 0.0 0.0 0.0202113538980484 -0.06133626773953438 -0.05518598109483719 -0.1490575671195984 -0.0597408227622509 -0.020384814590215683 0.0 -0.018588460981845856 -0.1475812941789627 0.0 -0.025355588644742966 -0.02741827443242073 0.07715651392936707 -0.1918567568063736 -0.051740046590566635 0.0 -0.06322811543941498 0.0

Layer weights:
0.23361730575561523 -0.2843599021434784 0.3103001117706299 0.030162516981363297
0.21794235706329346 -0.11350485682487488 -0.32998955249786377 0.1243581771850586
0.0008401870727539062 0.2829335331916809 0.3553861379623413 0.36578255891799927
-0.0687352791428566 -0.1266934871673584 -0.1280125230550766 -0.24936434626579285
-0.04661790281534195 -0.14816613495349884 0.2924717962741852 0.006176857743412256
0.32615363597869873 -0.34605568647384644 -0.3456110656261444 -0.15290096402168274
-0.25053536891937256 0.21892915666103363 0.22484426200389862 0.416009783744812
-0.07746241986751556 -0.32307130098342896 0.004601296968758106 0.1280028522014618
0.02042543888092041 0.2615243196487427 0.03678864240646362 0.05563667416572571
0.027235137298703194 -0.30000683665275574 0.06336825340986252 0.35518673062324524
-0.27356454730033875 -0.35500574111938477 0.21554988622665405 0.38619065284729004
-0.03894514590501785 -0.04656132310628891 0.31800517439842224 0.36062556505203247
0.2800021171569824 0.1293855905532837 -0.3096015751361847 -0.2677614092826843
0.05552378296852112 0.36240047216415405 -0.10896062850952148 -0.38723233342170715
0.2542484998703003 0.21479938924312592 -0.21872618794441223 -0.1578584611415863
0.4622178077697754 -0.342149943113327 -0.26003509759902954 -0.09776239097118378
-0.19111594557762146 0.4040369391441345 -0.13784649968147278 0.366430401802063
0.11582028120756149 0.3130124807357788 0.05294106528162956 0.034791503101587296
0.03264421224594116 0.15646986663341522 0.188904270529747 -0.22812184691429138
0.05073875933885574 0.057127904146909714 -0.008577167987823486 0.213999941945076
0.04140344262123108 0.005674958229064941 -0.25903308391571045 -0.10530388355255127
0.11475162208080292 -0.18995852768421173 0.2614922523498535 -0.2900561988353729
0.2803006172180176 0.026570122689008713 0.4876500368118286 0.059302620589733124
-0.013748228549957275 0.3323289752006531 -0.3837447762489319 0.18739241361618042
-0.32142218947410583 0.019544923678040504 -0.3222805857658386 -0.3684384226799011
0.14209696650505066 0.23242980241775513 0.044312622398138046 0.2462782859802246
0.18366491794586182 0.13251997530460358 0.21687379479408264 0.1719549596309662
-0.21161429584026337 0.1564081460237503 -0.04246107488870621 0.021317390725016594
-0.33327651023864746 0.25968238711357117 -0.12450123578310013 0.06669239699840546
-0.3354285657405853 -0.10424467921257019 -0.3193231225013733 -0.40173810720443726
-0.05398447811603546 -0.022409290075302124 0.14233572781085968 -0.17532429099082947
0.3063351511955261 0.3211762309074402 -0.23819279670715332 -0.08442884683609009
Layer biases:
0.10089880228042603 0.12597978115081787 0.12533807754516602 0.05975271388888359

